<?xml version="1.0" encoding="UTF-8"?>
<BIF VERSION="0.3"  xmlns="http://www.cs.ubc.ca/labs/lci/fopi/ve/XMLBIFv0_3"
	xmlns:xsi="http://www.w3.org/2001/XMLSchema-instance"
	xsi:schemaLocation="http://www.cs.ubc.ca/labs/lci/fopi/ve/XMLBIFv0_3 http://www.cs.ubc.ca/labs/lci/fopi/ve/XMLBIFv0_3/XMLBIFv0_3.xsd">
<NETWORK>
<NAME>Nuclear Power Station</NAME>
<PROPERTY>detailed = </PROPERTY>
<PROPERTY>short = </PROPERTY>

<VARIABLE TYPE="nature">
	<NAME>WaterLeak</NAME>
	<OUTCOME>T</OUTCOME>
	<OUTCOME>F</OUTCOME>
	<PROPERTY>position = (7630.349609375, 5148.84814453125)</PROPERTY>
</VARIABLE>

<VARIABLE TYPE="nature">
	<NAME>WaterLeakWarning</NAME>
	<OUTCOME>T</OUTCOME>
	<OUTCOME>F</OUTCOME>
	<PROPERTY>position = (7707.22900390625, 5280.455078125)</PROPERTY>
</VARIABLE>

<VARIABLE TYPE="nature">
	<NAME>IcyWeather</NAME>
	<OUTCOME>T</OUTCOME>
	<OUTCOME>F</OUTCOME>
	<PROPERTY>position = (7630.349609375, 5028.96826171875)</PROPERTY>
</VARIABLE>

<VARIABLE TYPE="nature">
	<NAME>PumpFailure</NAME>
	<OUTCOME>T</OUTCOME>
	<OUTCOME>F</OUTCOME>
	<PROPERTY>position = (7372.34765625, 5146.24169921875)</PROPERTY>
</VARIABLE>

<VARIABLE TYPE="nature">
	<NAME>PumpFailureWarning</NAME>
	<OUTCOME>T</OUTCOME>
	<OUTCOME>F</OUTCOME>
	<PROPERTY>position = (7296.77099609375, 5277.84912109375)</PROPERTY>
</VARIABLE>

<VARIABLE TYPE="nature">
	<NAME>Meltdown</NAME>
	<OUTCOME>T</OUTCOME>
	<OUTCOME>F</OUTCOME>
	<PROPERTY>position = (7483.10595703125, 5399.03173828125)</PROPERTY>
</VARIABLE>

<VARIABLE TYPE="nature">
	<NAME>Battery</NAME>
	<OUTCOME>T</OUTCOME>
	<OUTCOME>F</OUTCOME>
	<PROPERTY>position = (7829.0, 5027.0)</PROPERTY>
</VARIABLE>

<VARIABLE TYPE="nature">
	<NAME>Radio</NAME>
	<OUTCOME>T</OUTCOME>
	<OUTCOME>F</OUTCOME>
	<PROPERTY>position = (7758.0, 5120.0)</PROPERTY>
</VARIABLE>

<VARIABLE TYPE="nature">
	<NAME>Ignition</NAME>
	<OUTCOME>T</OUTCOME>
	<OUTCOME>F</OUTCOME>
	<PROPERTY>position = (7893.0, 5112.0)</PROPERTY>
</VARIABLE>

<VARIABLE TYPE="nature">
	<NAME>Starts</NAME>
	<OUTCOME>T</OUTCOME>
	<OUTCOME>F</OUTCOME>
	<PROPERTY>position = (7927.0, 5269.0)</PROPERTY>
</VARIABLE>

<VARIABLE TYPE="nature">
	<NAME>Gas</NAME>
	<OUTCOME>T</OUTCOME>
	<OUTCOME>F</OUTCOME>
	<PROPERTY>position = (7986.0, 5110.0)</PROPERTY>
</VARIABLE>

<VARIABLE TYPE="nature">
	<NAME>Moves</NAME>
	<OUTCOME>T</OUTCOME>
	<OUTCOME>F</OUTCOME>
	<PROPERTY>position = (7929.0, 5397.0)</PROPERTY>
</VARIABLE>

<VARIABLE TYPE="nature">
	<NAME>BicycleWorks</NAME>
	<OUTCOME>T</OUTCOME>
	<OUTCOME>F</OUTCOME>
	<PROPERTY>position = (7613.0, 5398.0)</PROPERTY>
</VARIABLE>

<VARIABLE TYPE="nature">
	<NAME>ReactWarningSignal</NAME>
	<OUTCOME>T</OUTCOME>
	<OUTCOME>F</OUTCOME>
	<PROPERTY>position = (7496.0, 5259.0)</PROPERTY>
</VARIABLE>

<VARIABLE TYPE="nature">
	<NAME>Sleeps</NAME>
	<OUTCOME>T</OUTCOME>
	<OUTCOME>F</OUTCOME>
	<PROPERTY>position = (7495.0, 5151.0)</PROPERTY>
</VARIABLE>

<VARIABLE TYPE="nature">
	<NAME>Survives</NAME>
	<OUTCOME>T</OUTCOME>
	<OUTCOME>F</OUTCOME>
	<PROPERTY>position = (7599.0, 5531.0)</PROPERTY>
</VARIABLE>

<DEFINITION>
	<FOR>WaterLeak</FOR>
	<GIVEN>IcyWeather</GIVEN>
	<TABLE>0.2 0.8 0.1 0.9</TABLE>
</DEFINITION>

<DEFINITION>
	<FOR>WaterLeakWarning</FOR>
	<GIVEN>WaterLeak</GIVEN>
	<TABLE>0.9 0.1 0.05 0.95</TABLE>
</DEFINITION>

<DEFINITION>
	<FOR>IcyWeather</FOR>
	<TABLE>0.05 0.95</TABLE>
</DEFINITION>

<DEFINITION>
	<FOR>PumpFailure</FOR>
	<TABLE>0.1 0.9</TABLE>
</DEFINITION>

<DEFINITION>
	<FOR>PumpFailureWarning</FOR>
	<GIVEN>PumpFailure</GIVEN>
	<TABLE>0.9 0.1 0.05 0.95</TABLE>
</DEFINITION>

<DEFINITION>
	<FOR>Meltdown</FOR>
	<GIVEN>WaterLeak</GIVEN>
	<GIVEN>PumpFailure</GIVEN>
	<TABLE>0.2 0.8 0.1 0.9 0.15 0.85 0.001 0.999</TABLE>
</DEFINITION>

<DEFINITION>
	<FOR>Battery</FOR>
	<GIVEN>IcyWeather</GIVEN>
	<TABLE>0.5 0.5 0.5 0.5</TABLE>
</DEFINITION>

<DEFINITION>
	<FOR>Radio</FOR>
	<GIVEN>Battery</GIVEN>
	<TABLE>0.5 0.5 0.5 0.5</TABLE>
</DEFINITION>

<DEFINITION>
	<FOR>Ignition</FOR>
	<GIVEN>Battery</GIVEN>
	<TABLE>0.5 0.5 0.5 0.5</TABLE>
</DEFINITION>

<DEFINITION>
	<FOR>Starts</FOR>
	<GIVEN>Ignition</GIVEN>
	<GIVEN>Gas</GIVEN>
	<TABLE>0.5 0.5 0.5 0.5 0.5 0.5 0.5 0.5</TABLE>
</DEFINITION>

<DEFINITION>
	<FOR>Gas</FOR>
	<TABLE>0.5 0.5</TABLE>
</DEFINITION>

<DEFINITION>
	<FOR>Moves</FOR>
	<GIVEN>Starts</GIVEN>
	<TABLE>0.5 0.5 0.5 0.5</TABLE>
</DEFINITION>

<DEFINITION>
	<FOR>BicycleWorks</FOR>
	<TABLE>0.5 0.5</TABLE>
</DEFINITION>

<DEFINITION>
	<FOR>ReactWarningSignal</FOR>
	<GIVEN>Sleeps</GIVEN>
	<TABLE>0.5 0.5 0.5 0.5</TABLE>
</DEFINITION>

<DEFINITION>
	<FOR>Sleeps</FOR>
	<TABLE>0.5 0.5</TABLE>
</DEFINITION>

<DEFINITION>
	<FOR>Survives</FOR>
	<GIVEN>Meltdown</GIVEN>
	<GIVEN>Moves</GIVEN>
	<GIVEN>BicycleWorks</GIVEN>
	<TABLE>0.5 0.5 0.5 0.5 0.5 0.5 0.5 0.5 0.5 0.5 0.5 0.5 0.5 0.5 0.5 0.5</TABLE>
</DEFINITION>
</NETWORK>
</BIF>
